Language model created by QuickLM on Fri Apr  5 01:41:17 EDT 2019
Copyright (c) 1996-2010 Carnegie Mellon University and Alexander I. Rudnicky

The model is in standard ARPA format, designed by Doug Paul while he was at MITRE.

The code that was used to produce this language model is available in Open Source.
Please visit http://www.speech.cs.cmu.edu/tools/ for more information

The (fixed) discount mass is 0.5. The backoffs are computed using the ratio method.
This model based on a corpus of 33 sentences and 40 words

\data\
ngram 1=40
ngram 2=71
ngram 3=73

\1-grams:
-0.9439 </s> -0.3010
-0.9439 <s> -0.2486
-2.4624 ARE -0.2995
-2.1614 CALCULATOR -0.2486
-2.1614 CHROME -0.2486
-1.3832 CLOSE -0.2651
-2.1614 COMMAND -0.2980
-2.1614 CONTROL -0.2980
-2.4624 CURRENT -0.2995
-2.1614 EDGE -0.2486
-2.1614 EXCEL -0.2486
-2.4624 EXPLORER -0.2486
-2.4624 FILE -0.2486
-2.4624 GOOD -0.2995
-2.4624 IS -0.2995
-2.4624 MANAGER -0.2486
-2.1614 MICROSOFT -0.2980
-2.4624 MORNING -0.2486
-2.4624 MY -0.2995
-1.9853 NOTEPAD -0.2486
-1.3485 OPEN -0.2586
-2.1614 PAINT -0.2486
-2.1614 PANEL -0.2486
-2.1614 PLAYER -0.2486
-2.1614 POINT -0.2486
-2.1614 POWER -0.2980
-2.1614 PROMPT -0.2486
-2.4624 REDO -0.2965
-2.4624 SAVE -0.2995
-2.4624 SLEEP -0.2486
-1.9853 TASK -0.2469
-2.4624 THE -0.2995
-2.4624 TIME -0.2486
-2.4624 UNDO -0.2965
-2.4624 UP -0.2486
-2.4624 WAKE -0.2995
-2.4624 WHAT -0.2995
-2.4624 WHO -0.2995
-2.1614 WORD -0.2486
-2.4624 YOU -0.2486

\2-grams:
-0.7404 <s> CLOSE 0.0000
-1.8195 <s> GOOD 0.0000
-0.7056 <s> OPEN -0.0000
-1.8195 <s> REDO 0.0000
-1.8195 <s> SAVE 0.0000
-1.8195 <s> SLEEP 0.0000
-1.8195 <s> UNDO 0.0000
-1.8195 <s> WAKE 0.0000
-1.8195 <s> WHAT 0.0000
-1.8195 <s> WHO 0.0000
-0.3010 ARE YOU 0.0000
-0.3010 CALCULATOR </s> -0.3010
-0.3010 CHROME </s> -0.3010
-1.3802 CLOSE CALCULATOR 0.0000
-1.3802 CLOSE CHROME 0.0000
-1.3802 CLOSE COMMAND 0.0000
-1.3802 CLOSE CONTROL 0.0000
-1.3802 CLOSE EXCEL 0.0000
-1.3802 CLOSE MICROSOFT 0.0000
-1.0792 CLOSE NOTEPAD 0.0000
-1.3802 CLOSE PAINT 0.0000
-1.3802 CLOSE PLAYER 0.0000
-1.3802 CLOSE POWER 0.0000
-1.3802 CLOSE WORD 0.0000
-0.3010 COMMAND PROMPT 0.0000
-0.3010 CONTROL PANEL 0.0000
-0.3010 CURRENT TIME 0.0000
-0.3010 EDGE </s> -0.3010
-0.3010 EXCEL </s> -0.3010
-0.3010 EXPLORER </s> -0.3010
-0.3010 FILE </s> -0.3010
-0.3010 GOOD MORNING 0.0000
-0.3010 IS THE 0.0000
-0.3010 MANAGER </s> -0.3010
-0.3010 MICROSOFT EDGE 0.0000
-0.3010 MORNING </s> -0.3010
-0.3010 MY FILE 0.0000
-0.3010 NOTEPAD </s> -0.3010
-1.4150 OPEN CALCULATOR 0.0000
-1.4150 OPEN CHROME 0.0000
-1.4150 OPEN COMMAND 0.0000
-1.4150 OPEN CONTROL 0.0000
-1.4150 OPEN EXCEL 0.0000
-1.4150 OPEN EXPLORER 0.0000
-1.4150 OPEN MICROSOFT 0.0000
-1.4150 OPEN NOTEPAD 0.0000
-1.4150 OPEN PAINT 0.0000
-1.4150 OPEN PLAYER 0.0000
-1.4150 OPEN POWER 0.0000
-1.4150 OPEN TASK -0.2218
-1.4150 OPEN WORD 0.0000
-0.3010 PAINT </s> -0.3010
-0.3010 PANEL </s> -0.3010
-0.3010 PLAYER </s> -0.3010
-0.3010 POINT </s> -0.3010
-0.3010 POWER POINT 0.0000
-0.3010 PROMPT </s> -0.3010
-0.3010 REDO TASK -0.1249
-0.3010 SAVE MY 0.0000
-0.3010 SLEEP </s> -0.3010
-0.4771 TASK </s> -0.3010
-0.7782 TASK MANAGER 0.0000
-0.3010 THE CURRENT 0.0000
-0.3010 TIME </s> -0.3010
-0.3010 UNDO TASK -0.1249
-0.3010 UP </s> -0.3010
-0.3010 WAKE UP 0.0000
-0.3010 WHAT IS 0.0000
-0.3010 WHO ARE 0.0000
-0.3010 WORD </s> -0.3010
-0.3010 YOU </s> -0.3010

\3-grams:
-1.3802 <s> CLOSE CALCULATOR
-1.3802 <s> CLOSE CHROME
-1.3802 <s> CLOSE COMMAND
-1.3802 <s> CLOSE CONTROL
-1.3802 <s> CLOSE EXCEL
-1.3802 <s> CLOSE MICROSOFT
-1.0792 <s> CLOSE NOTEPAD
-1.3802 <s> CLOSE PAINT
-1.3802 <s> CLOSE PLAYER
-1.3802 <s> CLOSE POWER
-1.3802 <s> CLOSE WORD
-0.3010 <s> GOOD MORNING
-1.4150 <s> OPEN CALCULATOR
-1.4150 <s> OPEN CHROME
-1.4150 <s> OPEN COMMAND
-1.4150 <s> OPEN CONTROL
-1.4150 <s> OPEN EXCEL
-1.4150 <s> OPEN EXPLORER
-1.4150 <s> OPEN MICROSOFT
-1.4150 <s> OPEN NOTEPAD
-1.4150 <s> OPEN PAINT
-1.4150 <s> OPEN PLAYER
-1.4150 <s> OPEN POWER
-1.4150 <s> OPEN TASK
-1.4150 <s> OPEN WORD
-0.3010 <s> REDO TASK
-0.3010 <s> SAVE MY
-0.3010 <s> SLEEP </s>
-0.3010 <s> UNDO TASK
-0.3010 <s> WAKE UP
-0.3010 <s> WHAT IS
-0.3010 <s> WHO ARE
-0.3010 ARE YOU </s>
-0.3010 CLOSE CALCULATOR </s>
-0.3010 CLOSE CHROME </s>
-0.3010 CLOSE COMMAND PROMPT
-0.3010 CLOSE CONTROL PANEL
-0.3010 CLOSE EXCEL </s>
-0.3010 CLOSE MICROSOFT EDGE
-0.3010 CLOSE NOTEPAD </s>
-0.3010 CLOSE PAINT </s>
-0.3010 CLOSE PLAYER </s>
-0.3010 CLOSE POWER POINT
-0.3010 CLOSE WORD </s>
-0.3010 COMMAND PROMPT </s>
-0.3010 CONTROL PANEL </s>
-0.3010 CURRENT TIME </s>
-0.3010 GOOD MORNING </s>
-0.3010 IS THE CURRENT
-0.3010 MICROSOFT EDGE </s>
-0.3010 MY FILE </s>
-0.3010 OPEN CALCULATOR </s>
-0.3010 OPEN CHROME </s>
-0.3010 OPEN COMMAND PROMPT
-0.3010 OPEN CONTROL PANEL
-0.3010 OPEN EXCEL </s>
-0.3010 OPEN EXPLORER </s>
-0.3010 OPEN MICROSOFT EDGE
-0.3010 OPEN NOTEPAD </s>
-0.3010 OPEN PAINT </s>
-0.3010 OPEN PLAYER </s>
-0.3010 OPEN POWER POINT
-0.3010 OPEN TASK MANAGER
-0.3010 OPEN WORD </s>
-0.3010 POWER POINT </s>
-0.3010 REDO TASK </s>
-0.3010 SAVE MY FILE
-0.3010 TASK MANAGER </s>
-0.3010 THE CURRENT TIME
-0.3010 UNDO TASK </s>
-0.3010 WAKE UP </s>
-0.3010 WHAT IS THE
-0.3010 WHO ARE YOU

\end\
